svm_type one_class
kernel_type rbf
gamma 0.01
nr_class 2
total_sv 22
rho 21.0454
SV
1 1:0.012721404 2:0.0097695217 3:0.0074312603 
1 1:0.010700998 2:0.01481773 3:0.0051200408 
1 1:0.012206584 2:0.010158226 3:0.0081210565 
1 1:0.0066441465 2:0.0095617771 3:0.007005753 
1 1:0.0097469687 2:0.0088238418 3:0.0077006472 
1 1:0.01027952 2:0.011365376 3:0.0068318211 
1 1:0.014410138 2:0.0082148686 3:0.0097378064 
1 1:0.010610344 2:0.011261461 3:0.0095218755 
1 1:0.010830231 2:0.0073963404 3:0.0085465629 
1 1:0.012097208 2:0.0066655725 3:0.0071050264 
1 1:-0.021354735 2:-0.049631413 3:-0.029300433 
1 1:-0.025945127 2:-0.0411999 3:-0.058811698 
1 1:-0.02653244 2:-0.037247021 3:-0.053750616 
1 1:-0.02493549 2:-0.043194272 3:-0.051110193 
1 1:-0.024549624 2:-0.03558401 3:-0.050563361 
1 1:-0.025027702 2:-0.023642875 3:-0.050470032 
1 1:0.0016487371 2:-0.0035416707 3:0.018264428 
1 1:-0.017811144 2:-0.048761882 3:-0.027061332 
1 1:-0.029873451 2:-0.039580815 3:-0.031004578 
1 1:-0.021170881 2:-0.04005456 3:-0.046225578 
1 1:-0.025449032 2:-0.03726045 3:-0.044113338 
0.04599999999999937 1:-0.02087779 2:-0.040301688 3:-0.038471475 
